<?xml version="1.0"?>
<opencv_storage>
<stage0>
  <maxWeakCount>6</maxWeakCount>
  <stageThreshold>1.3908858597278595e-01</stageThreshold>
  <weakClassifiers>
    <_>
      <internalNodes>
        0 -1 71481 3.9769010618329048e-03</internalNodes>
      <leafValues>
        -5.9344261884689331e-01 9.2820513248443604e-01</leafValues></_>
    <_>
      <internalNodes>
        0 -1 61276 3.9183958433568478e-03</internalNodes>
      <leafValues>
        -4.8800930380821228e-01 9.4836676120758057e-01</leafValues></_>
    <_>
      <internalNodes>
        0 -1 484 4.6007849276065826e-02</internalNodes>
      <leafValues>
        -9.4829773902893066e-01 5.9919673204421997e-01</leafValues></_>
    <_>
      <internalNodes>
        0 -1 53844 -5.3967293351888657e-03</internalNodes>
      <leafValues>
        6.8600440025329590e-01 -7.0335012674331665e-01</leafValues></_>
    <_>
      <internalNodes>
        0 -1 63261 3.7653900217264891e-03</internalNodes>
      <leafValues>
        -5.0545847415924072e-01 9.2240130901336670e-01</leafValues></_>
    <_>
      <internalNodes>
        0 -1 9856 -2.5707702661748044e-05</internalNodes>
      <leafValues>
        -1. 5.5191630125045776e-01</leafValues></_></weakClassifiers></stage0>
</opencv_storage>
